tree
version=v4
num_class=1
num_tree_per_iteration=1
label_index=0
max_feature_idx=10
objective=regression
feature_names=venue_id Lag_1 Lag_2 Lag_3 Lag_4 Lag_5 Lag_6 Day_of_Week day Month Year
feature_infos=-1:0:1:2:3:4:5:6:7:8:9:10:11:12:13:14 [7:433] [7:433] [7:433] [7:420] [7:420] [7:420] [0:6] [1:31] [10:11] none
tree_sizes=611 701 613 704 622 688 611 616 537 698 618 627 620 616 546 619 625 691 702 700 697 705 702 622 697 622 619 623 698 624 700 544 621 619 703 700 621 702 701 704 628 704 627 701 704 621 628 705 625 705

Tree=0
num_leaves=6
num_cat=0
split_feature=6 4 4 6 7
split_gain=898172 558017 115121 13321.5 7829.18
threshold=283.00000000000006 283.00000000000006 27.500000000000004 84.500000000000014 2.5000000000000004
decision_type=10 8 10 10 2
left_child=1 2 -1 -4 -3
right_child=-2 4 3 -5 -6
leaf_value=134.85322661440597 150.07694421344334 142.37749991946751 137.73527780108981 139.51623010029869 143.42027782016331
leaf_weight=39 24 45 21 21 30
leaf_count=39 24 45 21 21 30
internal_value=141.072 139.687 136.809 138.626 142.795
internal_weight=0 156 81 42 75
internal_count=180 156 81 42 75
is_linear=0
shrinkage=1


Tree=1
num_leaves=7
num_cat=0
split_feature=1 1 7 7 1 7
split_gain=2.63888e+06 278240 182184 48021.4 1600.45 441.416
threshold=368.00000000000006 25.500000000000004 1.0000000180025095e-35 4.5000000000000009 92.500000000000014 2.5000000000000004
decision_type=10 8 2 2 10 2
left_child=1 5 -3 4 -4 -1
right_child=-2 2 3 -5 -6 -7
leaf_value=-6.2470879872639982 11.511214955647787 2.0351909784170297 -2.2331233115423297 -4.8239666678688744 -1.6081551599502566 -5.9548670768737795
leaf_weight=24 39 26 21 22 20 28
leaf_count=24 39 26 21 22 20 28
internal_value=0 -3.18395 -1.48619 -2.93946 -1.92826 -6.08974
internal_weight=0 141 89 63 41 52
internal_count=180 141 89 63 41 52
is_linear=0
shrinkage=0.05


Tree=2
num_leaves=6
num_cat=0
split_feature=6 4 4 8 8
split_gain=753520 452555 93013.8 11706.5 4473.05
threshold=283.00000000000006 283.00000000000006 27.500000000000004 4.5000000000000009 28.500000000000004
decision_type=10 8 10 2 2
left_child=1 2 -1 -4 -3
right_child=-2 4 3 -5 -6
leaf_value=-5.6185757270226118 8.2477919578552257 2.0027209345499677 -3.1030624961853031 -1.4316559011285956 1.2145221943325468
leaf_weight=39 24 30 20 22 45
leaf_count=39 24 30 20 22 45
internal_value=0 -1.26889 -3.86027 -2.22756 1.5298
internal_weight=0 156 81 42 75
internal_count=180 156 81 42 75
is_linear=0
shrinkage=0.05


Tree=3
num_leaves=7
num_cat=0
split_feature=1 1 1 5 5 5
split_gain=2.29841e+06 228875 76041.9 10268.1 2198.29 1452.16
threshold=368.00000000000006 25.500000000000004 40.500000000000007 87.500000000000014 1.0000000180025095e-35 25.500000000000004
decision_type=10 8 10 10 10 10
left_child=1 4 -3 5 -1 -4
right_child=-2 2 3 -5 -6 -7
leaf_value=-6.0181198501586914 10.742987774579953 0.67056177731218014 -2.2864814472198485 -3.3727593755722047 -5.349892187118531 -1.6839527130126954
leaf_weight=20 39 29 20 20 32 20
leaf_count=20 39 29 20 20 32 20
internal_value=0 -2.97146 -1.43166 -2.44773 -5.6069 -1.98522
internal_weight=0 141 89 60 52 40
internal_count=180 141 89 60 52 40
is_linear=0
shrinkage=0.05


Tree=4
num_leaves=6
num_cat=0
split_feature=2 2 2 6 6
split_gain=996106 346678 290125 2365.37 328.123
threshold=372.00000000000006 25.500000000000004 40.500000000000007 403.50000000000006 1.0000000180025095e-35
decision_type=10 8 10 8 10
left_child=1 4 -3 -4 -1
right_child=-2 2 3 -5 -6
leaf_value=-5.457630672454834 7.8503376122676976 2.9406274275346238 -2.2034823000431061 -2.8601304133733114 -5.1904283452917035
leaf_weight=20 33 44 32 24 27
leaf_count=20 33 44 32 24 27
internal_value=0 -1.76232 -0.0976696 -2.4849 -5.30413
internal_weight=0 147 100 56 47
internal_count=180 147 100 56 47
is_linear=0
shrinkage=0.05


Tree=5
num_leaves=7
num_cat=0
split_feature=3 7 3 3 7 7
split_gain=542084 328781 560282 156957 4747.2 940.851
threshold=25.500000000000004 4.5000000000000009 196.00000000000003 40.500000000000007 1.5000000000000002 3.5000000000000004
decision_type=8 2 10 10 2 2
left_child=5 2 3 4 -2 -1
right_child=1 -3 -4 -5 -6 -7
leaf_value=-5.1993613156405365 1.9456378524367874 -4.4142788791656491 9.1636248474121089 -1.9736970438676722 2.8731135585091332 -4.7255246543884279
leaf_weight=22 37 20 25 34 22 20
leaf_count=22 37 20 25 34 22 20
internal_value=0 1.51374 2.51849 0.732166 2.29148 -4.97372
internal_weight=0 138 118 93 59 42
internal_count=180 138 118 93 59 42
is_linear=0
shrinkage=0.05


Tree=6
num_leaves=6
num_cat=0
split_feature=4 8 4 4 8
split_gain=400011 158804 207208 72382 19433.7
threshold=25.500000000000004 3.5000000000000004 91.500000000000014 69.500000000000014 28.500000000000004
decision_type=8 2 10 8 2
left_child=-1 -2 3 -3 -5
right_child=1 2 -4 4 -6
leaf_value=-4.6337966609645536 -2.0348344516754149 3.7295356130599977 6.6744907331466683 -0.69977064984185366 0.9779681693183051
leaf_weight=37 30 20 20 28 45
leaf_count=37 30 20 20 28 45
internal_value=0 1.19895 2.05748 1.06458 0.334452
internal_weight=0 143 113 93 73
internal_count=180 143 113 93 73
is_linear=0
shrinkage=0.05


Tree=7
num_leaves=6
num_cat=0
split_feature=5 7 5 8 5
split_gain=314309 237147 292854 33596.4 25028.7
threshold=25.500000000000004 4.5000000000000009 95.500000000000014 6.5000000000000009 78.500000000000014
decision_type=8 2 10 2 8
left_child=-1 2 3 -2 -5
right_child=1 -3 -4 4 -6
leaf_value=-4.4933256506919861 -0.83262677192687995 -4.0918232154846192 7.3202819967269903 2.7680899500846863 0.73393140762082998
leaf_weight=32 26 20 20 20 62
leaf_count=32 26 20 20 20 62
internal_value=0 0.97153 1.76268 0.733493 1.23007
internal_weight=0 148 128 108 82
internal_count=180 148 128 108 82
is_linear=0
shrinkage=0.05


Tree=8
num_leaves=5
num_cat=0
split_feature=6 4 4 6
split_gain=508381 257591 47216.3 5058.4
threshold=283.00000000000006 283.00000000000006 27.500000000000004 95.500000000000014
decision_type=10 8 10 8
left_child=1 2 -1 -4
right_child=-2 -3 3 -5
leaf_value=-4.2500685276129309 6.7746220906575516 1.0692207107543945 -2.3572282466021455 -1.258539400100708
leaf_weight=39 24 75 22 20
leaf_count=39 24 75 22 20
internal_value=0 -1.04225 -2.99731 -1.83404
internal_weight=0 156 81 42
internal_count=180 156 81 42
is_linear=0
shrinkage=0.05


Tree=9
num_leaves=7
num_cat=0
split_feature=1 1 1 3 3 3
split_gain=1.68052e+06 138751 50653.3 4161.9 3435.22 746.297
threshold=368.00000000000006 25.500000000000004 31.500000000000004 18.500000000000004 315.00000000000006 87.500000000000014
decision_type=10 8 10 8 8 10
left_child=1 3 -3 -1 5 -4
right_child=-2 2 4 -5 -6 -7
leaf_value=-4.209761136372884 9.1861221802540314 0.73970298767089848 -1.9681353988647463 -5.1151711203835228 -2.5553392501104448 -1.5638154120672318
leaf_weight=30 39 22 25 22 21 21
leaf_count=30 39 22 25 22 21 21
internal_value=0 -2.54084 -1.34193 -4.59282 -2.02546 -1.78355
internal_weight=0 141 89 52 67 46
internal_count=180 141 89 52 67 46
is_linear=0
shrinkage=0.05


Tree=10
num_leaves=6
num_cat=0
split_feature=2 2 2 4 4
split_gain=687835 209044 201110 16402.6 4213.3
threshold=372.00000000000006 25.500000000000004 40.500000000000007 84.500000000000014 18.500000000000004
decision_type=10 8 10 8 8
left_child=1 4 -3 -4 -1
right_child=-2 2 3 -5 -6
leaf_value=-3.7706624526977546 6.5234521923643172 2.3578113859350029 -1.0546279203324092 -2.8221985462733681 -4.7194057291204281
leaf_weight=25 33 44 21 35 22
leaf_count=25 33 44 21 35 22
internal_value=0 -1.46445 -0.171804 -2.15936 -4.21476
internal_weight=0 147 100 56 47
internal_count=180 147 100 56 47
is_linear=0
shrinkage=0.05


Tree=11
num_leaves=6
num_cat=0
split_feature=1 7 1 4 4
split_gain=1.42661e+06 138245 62980.5 19248.9 3895.69
threshold=368.00000000000006 1.0000000180025095e-35 53.000000000000007 27.500000000000004 99.000000000000014
decision_type=10 2 10 8 8
left_child=1 -1 3 -3 -4
right_child=-2 2 4 -5 -6
leaf_value=0.67047906239827482 8.463764645503117 -3.6216172442716714 -1.586413351694743 -5.5469491141183038 -2.4226106203519384
leaf_weight=30 39 34 30 21 26
leaf_count=30 39 34 30 21 26
internal_value=0 -2.34104 -3.15497 -4.35674 -1.97465
internal_weight=0 141 111 55 56
internal_count=180 141 111 55 56
is_linear=0
shrinkage=0.05


Tree=12
num_leaves=6
num_cat=0
split_feature=2 2 2 4 4
split_gain=554389 173269 169299 13699.7 3138.47
threshold=372.00000000000006 25.500000000000004 40.500000000000007 84.500000000000014 18.500000000000004
decision_type=10 8 10 8 8
left_child=1 4 -3 -4 -1
right_child=-2 2 3 -5 -6
leaf_value=-3.4353852996826171 5.8565638224283854 2.1830569960854271 -0.95187842391786115 -2.5672618538992751 -4.2542212486267088
leaf_weight=25 33 44 21 35 22
leaf_count=25 33 44 21 35 22
internal_value=0 -1.31474 -0.137891 -1.96149 -3.81867
internal_weight=0 147 100 56 47
internal_count=180 147 100 56 47
is_linear=0
shrinkage=0.05


Tree=13
num_leaves=6
num_cat=0
split_feature=4 7 4 4 7
split_gain=206000 185984 271042 67782.2 26366.7
threshold=25.500000000000004 4.5000000000000009 105.00000000000001 40.500000000000007 1.5000000000000002
decision_type=8 2 10 10 2
left_child=-1 2 3 4 -2
right_child=1 -3 -4 -5 -6
leaf_value=-3.3253284866745414 0.24463895367037869 -3.6113466286659239 6.9139789009094246 -1.4956779652628407 2.1575665806615074
leaf_weight=37 31 20 20 29 43
leaf_count=37 31 20 20 29 43
internal_value=0 0.8604 1.58751 0.553248 1.35621
internal_weight=0 143 123 103 74
internal_count=180 143 123 103 74
is_linear=0
shrinkage=0.05


Tree=14
num_leaves=5
num_cat=0
split_feature=6 6 9 6
split_gain=348380 79402.8 33354.4 2756.88
threshold=283.00000000000006 22.000000000000004 10.500000000000002 29.000000000000004
decision_type=10 8 2 10
left_child=1 -1 -3 -4
right_child=-2 2 3 -5
leaf_value=-3.3284776546336987 5.608119010925293 0.51547285397847498 -1.4265419410936762 -0.79384586215019226
leaf_weight=27 24 60 33 36
leaf_count=27 24 60 33 36
internal_value=0 -0.862788 -0.346713 -1.09644
internal_weight=0 156 129 69
internal_count=180 156 129 69
is_linear=0
shrinkage=0.05


Tree=15
num_leaves=6
num_cat=0
split_feature=3 3 3 5 5
split_gain=233914 104074 99372.4 1543.53 1303.69
threshold=25.500000000000004 196.00000000000003 40.500000000000007 91.500000000000014 12.500000000000002
decision_type=8 10 10 8 10
left_child=4 2 -2 -4 -1
right_child=1 -3 3 -5 -6
leaf_value=-3.5593749237060552 1.5351237636501507 3.349879766191755 -1.3214641249698142 -1.9143631253923692 -3.0016043402931909
leaf_weight=20 59 35 23 21 22
leaf_count=20 59 35 23 21 22
internal_value=0 0.994368 0.193951 -1.60444 -3.26721
internal_weight=0 138 103 44 42
internal_count=180 138 103 44 42
is_linear=0
shrinkage=0.05


Tree=16
num_leaves=6
num_cat=0
split_feature=6 6 7 6 7
split_gain=299293 64902.8 56170.4 17113.9 794.031
threshold=283.00000000000006 22.000000000000004 4.5000000000000009 62.000000000000007 1.5000000000000002
decision_type=10 8 2 10 2
left_child=1 -1 3 4 -3
right_child=-2 2 -4 -5 -6
leaf_value=-3.0289143315068001 5.1980266094207765 0.25890459696451823 -2.7688346982002261 -1.0055906392060794 0.58081066563444317
leaf_weight=27 24 30 20 26 53
leaf_count=27 24 30 20 26 53
internal_value=0 -0.799696 -0.333116 0.113805 0.464459
internal_weight=0 156 129 109 83
internal_count=180 156 129 109 83
is_linear=0
shrinkage=0.05


Tree=17
num_leaves=7
num_cat=0
split_feature=3 7 3 3 7 7
split_gain=198510 179263 291832 69844.4 3430.69 2033.77
threshold=25.500000000000004 4.5000000000000009 196.00000000000003 40.500000000000007 1.5000000000000002 3.5000000000000004
decision_type=8 2 10 10 2 2
left_child=5 2 3 4 -2 -1
right_child=1 -3 -4 -5 -6 -7
leaf_value=-3.3415578495372422 1.1149053831358213 -3.4612196147441865 6.4538066635131841 -1.4362889808766983 1.9033558325334028 -2.6449000835418701
leaf_weight=22 37 20 25 34 22 20
leaf_count=22 37 20 25 34 22 20
internal_value=0 0.916031 1.65794 0.368726 1.4089 -3.00982
internal_weight=0 138 118 93 59 42
internal_count=180 138 118 93 59 42
is_linear=0
shrinkage=0.05


Tree=18
num_leaves=7
num_cat=0
split_feature=1 1 1 4 4 4
split_gain=1.00458e+06 70057.3 25257.4 28663.7 19903 1407.38
threshold=368.00000000000006 25.500000000000004 31.500000000000004 383.50000000000006 22.000000000000004 84.500000000000014
decision_type=10 8 10 8 8 10
left_child=1 4 -3 5 -1 -4
right_child=-2 2 3 -5 -6 -7
leaf_value=-2.6174508064023914 7.1023768302721848 0.35734963850541551 -1.1009100484848025 -2.9356982955932622 -4.6110643023536317 -0.52138191353191032
leaf_weight=31 39 22 20 25 21 22
leaf_count=31 39 22 20 25 21 22
internal_value=0 -1.96449 -1.11258 -1.59524 -3.42256 -0.797348
internal_weight=0 141 89 67 52 42
internal_count=180 141 89 67 52 42
is_linear=0
shrinkage=0.05


Tree=19
num_leaves=7
num_cat=0
split_feature=1 1 1 4 5 4
split_gain=906635 63226.7 22794.8 25869 19111.5 1270.16
threshold=368.00000000000006 25.500000000000004 31.500000000000004 383.50000000000006 1.0000000180025095e-35 84.500000000000014
decision_type=10 8 10 8 10 10
left_child=1 4 -3 5 -1 -4
right_child=-2 2 3 -5 -6 -7
leaf_value=-4.463918056488037 6.7472580029414253 0.33948197798295454 -1.0458645424991848 -2.7889133491516116 -2.4936342716217044 -0.49531280398368838
leaf_weight=20 39 22 20 25 32 22
leaf_count=20 39 22 20 25 32 22
internal_value=0 -1.86626 -1.05695 -1.51548 -3.25144 -0.75748
internal_weight=0 141 89 67 52 42
internal_count=180 141 89 67 52 42
is_linear=0
shrinkage=0.05


Tree=20
num_leaves=7
num_cat=0
split_feature=2 6 2 2 4 4
split_gain=315887 116027 53175.7 17341.9 4242.97 2122.41
threshold=372.00000000000006 99.000000000000014 31.500000000000004 53.000000000000007 18.500000000000004 87.500000000000014
decision_type=10 10 8 10 8 8
left_child=1 2 4 -4 -1 -5
right_child=-2 -3 3 5 -6 -7
leaf_value=-2.4240047931671143 4.4208051883813111 2.4484318733215336 0.15289138406515124 -1.013444969767616 -3.3519011497497559 -1.7086898140285325
leaf_weight=28 33 21 32 21 22 23
leaf_count=28 33 21 32 21 22 23
internal_value=0 -0.992426 -1.5659 -0.732759 -2.83228 -1.37687
internal_weight=0 147 126 76 50 44
internal_count=180 147 126 76 50 44
is_linear=0
shrinkage=0.05


Tree=21
num_leaves=7
num_cat=0
split_feature=1 7 3 1 3 1
split_gain=773299 73737.8 39277.3 24724.2 1710.47 611.425
threshold=368.00000000000006 1.0000000180025095e-35 389.50000000000006 66.500000000000014 84.500000000000014 15.500000000000002
decision_type=10 2 8 10 10 10
left_child=1 -1 3 5 -5 -3
right_child=-2 2 -4 4 -6 -7
leaf_value=0.47583558400472009 6.2313853312761358 -2.4465796719426698 -3.9769738232647933 -1.2214549496060325 -0.57536185797303918 -2.8245839977264406
leaf_weight=30 39 23 27 21 20 20
leaf_count=30 39 23 27 21 20 20
internal_value=0 -1.72357 -2.31801 -1.78477 -0.906288 -2.6224
internal_weight=0 141 111 84 41 43
internal_count=180 141 111 84 41 43
is_linear=0
shrinkage=0.05


Tree=22
num_leaves=7
num_cat=0
split_feature=2 2 2 2 2 2
split_gain=253514 76571.6 97692.7 21721.8 1824.56 41.0762
threshold=372.00000000000006 25.500000000000004 66.500000000000014 66.500000000000014 97.500000000000014 15.500000000000002
decision_type=10 8 8 10 10 10
left_child=1 5 -3 -4 -5 -1
right_child=-2 2 3 4 -6 -7
leaf_value=-2.5133825160838938 3.9603777162956471 3.0188569253683095 0.17552373250325523 -1.2692857055314657 -1.8812498399189541 -2.6079228973388675
leaf_weight=27 33 20 30 29 21 20
leaf_count=27 33 20 30 29 21 20
internal_value=0 -0.889064 -0.106727 -0.888123 -1.52631 -2.55361
internal_weight=0 147 100 80 50 47
internal_count=180 147 100 80 50 47
is_linear=0
shrinkage=0.05


Tree=23
num_leaves=6
num_cat=0
split_feature=3 3 3 5 5
split_gain=107185 41791.4 52963.2 1370.57 1118.23
threshold=25.500000000000004 196.00000000000003 40.500000000000007 72.000000000000014 12.500000000000002
decision_type=8 10 10 10 10
left_child=4 2 -2 -4 -1
right_child=1 -3 3 -5 -6
leaf_value=-2.4822341918945314 1.1450249090033064 2.1657614379269736 -0.84132854774594312 -1.4017652953664461 -1.9656589681451972
leaf_weight=20 59 35 20 24 22
leaf_count=20 59 35 20 24 22
internal_value=0 0.67311 0.165898 -1.14702 -2.21165
internal_weight=0 138 103 44 42
internal_count=180 138 103 44 42
is_linear=0
shrinkage=0.05


Tree=24
num_leaves=7
num_cat=0
split_feature=6 3 3 3 6 6
split_gain=174032 84868.6 14064.9 10226.3 367.544 134.452
threshold=283.00000000000006 196.00000000000003 315.00000000000006 31.500000000000004 10.500000000000002 76.000000000000014
decision_type=10 8 10 10 10 10
left_child=1 3 -3 4 -1 -5
right_child=-2 2 -4 5 -6 -7
leaf_value=-2.2942373729887464 3.9637355486551922 0.2534288830227322 1.8205183641541574 -0.98715145777572288 -2.007809388637543 -1.1600476325206135
leaf_weight=21 24 45 21 22 24 23
leaf_count=21 24 45 21 22 24 23
internal_value=0 -0.609805 0.752048 -1.6085 -2.14148 -1.07552
internal_weight=0 156 66 90 45 45
internal_count=180 156 66 90 45 45
is_linear=0
shrinkage=0.05


Tree=25
num_leaves=6
num_cat=0
split_feature=3 3 3 3 4
split_gain=87114.3 32522.3 45323.6 13976.6 333.832
threshold=25.500000000000004 196.00000000000003 66.500000000000014 66.500000000000014 15.500000000000002
decision_type=8 10 8 10 10
left_child=4 2 -2 -4 -1
right_child=1 -3 3 -5 -6
leaf_value=-2.1282588091763581 2.296053741425276 1.9235831601279125 0.24075750139024521 -1.0615440981952768 -1.8460100221633913
leaf_weight=22 20 35 45 38 20
leaf_count=22 20 35 45 38 20
internal_value=0 0.606825 0.159383 -0.355477 -1.99385
internal_weight=0 138 103 83 42
internal_count=180 138 103 83 42
is_linear=0
shrinkage=0.05


Tree=26
num_leaves=6
num_cat=0
split_feature=2 4 2 2 4
split_gain=195425 56924 36636.5 10583.5 4565.03
threshold=372.00000000000006 99.000000000000014 105.00000000000001 40.500000000000007 20.500000000000004
decision_type=10 10 8 10 8
left_child=1 2 3 4 -1
right_child=-2 -3 -4 -5 -6
leaf_value=-1.8156815651924381 3.4771696883620637 1.6295078890664236 0.16579624215761823 -1.1014635883844817 -2.7845861196517947
leaf_weight=31 33 21 36 39 20
leaf_count=31 33 21 36 39 20
internal_value=0 -0.780589 -1.18227 -1.7215 -2.19564
internal_weight=0 147 126 90 51
internal_count=180 147 126 90 51
is_linear=0
shrinkage=0.05


Tree=27
num_leaves=6
num_cat=0
split_feature=1 7 1 7 1
split_gain=570471 54738.7 22606 6314.79 1851.01
threshold=368.00000000000006 1.0000000180025095e-35 53.000000000000007 2.5000000000000004 98.500000000000014
decision_type=10 2 10 2 10
left_child=1 -1 3 -3 -4
right_child=-2 2 4 -5 -6
leaf_value=0.41461723327636718 5.3521431932082546 -3.4212819290161138 -1.0711368460622099 -2.3075473730904714 -1.6710688468813897
leaf_weight=30 39 20 36 35 20
leaf_count=30 39 20 36 35 20
internal_value=0 -1.48038 -1.99254 -2.71254 -1.2854
internal_weight=0 141 111 55 56
internal_count=180 141 111 55 56
is_linear=0
shrinkage=0.05


Tree=28
num_leaves=7
num_cat=0
split_feature=2 2 2 8 2 8
split_gain=154220 43275.6 79289.4 22338 7090.81 4200.64
threshold=372.00000000000006 25.500000000000004 66.500000000000014 5.5000000000000009 196.00000000000003 6.5000000000000009
decision_type=10 8 8 2 8 2
left_child=1 5 -3 -4 -5 -1
right_child=-2 2 3 4 -6 -7
leaf_value=-1.5379639060408981 3.0889101693124483 2.7105487960577013 -2.0133325212850024 -0.89467979436335365 0.26401748657226565 -2.494012589454651
leaf_weight=27 33 20 26 23 31 20
leaf_count=27 33 20 26 23 31 20
internal_value=0 -0.693429 -0.105288 -0.809247 -0.229502 -1.94479
internal_weight=0 147 100 80 54 47
internal_count=180 147 100 80 54 47
is_linear=0
shrinkage=0.05


Tree=29
num_leaves=6
num_cat=0
split_feature=1 7 1 8 8
split_gain=488802 47085.3 18670.9 9259.14 4080.4
threshold=368.00000000000006 1.0000000180025095e-35 66.500000000000014 7.5000000000000009 4.5000000000000009
decision_type=10 2 10 2 2
left_child=1 -1 3 -3 -4
right_child=-2 2 4 -5 -6
leaf_value=0.38721130053202313 4.9542459304516129 -1.9712718759264267 -1.7457853517308832 -3.2802951726046476 -0.8457414718235241
leaf_weight=30 39 35 20 22 34
leaf_count=30 39 35 20 22 34
internal_value=0 -1.37032 -1.84533 -2.47651 -1.17909
internal_weight=0 141 111 57 54
internal_count=180 141 111 57 54
is_linear=0
shrinkage=0.05


Tree=30
num_leaves=7
num_cat=0
split_feature=8 5 5 5 5 8
split_gain=59114.7 114588 28130.5 25238.2 3630.95 6240.55
threshold=3.5000000000000004 95.500000000000014 53.000000000000007 25.500000000000004 78.500000000000014 28.500000000000004
decision_type=2 10 10 8 8 2
left_child=2 3 -1 -2 -5 -6
right_child=1 -3 -4 4 5 -7
leaf_value=-0.45128696470707652 -1.6072782819921319 4.0162152242660527 -2.967109397351742 0.83716594089161278 -0.5146896275190207 0.45832131279839405
leaf_weight=25 22 20 20 22 26 45
leaf_count=25 22 20 20 22 26 45
internal_value=0 0.523143 -1.56943 -0.0843473 0.275916 0.102007
internal_weight=0 135 45 115 93 71
internal_count=180 135 45 115 93 71
is_linear=0
shrinkage=0.05


Tree=31
num_leaves=5
num_cat=0
split_feature=4 4 4 4
split_gain=33660.9 18376.1 13638.4 18686.3
threshold=25.500000000000004 66.500000000000014 105.00000000000001 383.50000000000006
decision_type=8 8 8 10
left_child=-1 -2 -3 -4
right_child=1 2 3 -5
leaf_value=-1.3441998733056559 1.7534161844849585 -0.78776593304449516 0.80043415065026946 -0.92717208027839659
leaf_weight=37 20 31 72 20
leaf_count=37 20 31 72 20
internal_value=0 0.3478 0.119244 0.424868
internal_weight=0 143 123 92
internal_count=180 143 123 92
is_linear=0
shrinkage=0.05


Tree=32
num_leaves=6
num_cat=0
split_feature=6 8 6 6 8
split_gain=104386 24837.8 3980.62 2233.45 264.615
threshold=283.00000000000006 6.5000000000000009 105.00000000000001 84.500000000000014 29.500000000000004
decision_type=10 2 8 8 2
left_child=1 3 -3 -1 -4
right_child=-2 2 4 -5 -6
leaf_value=-1.5279978946403221 3.0698031902313234 -0.4344416556358337 0.21224782082342331 -0.94778069184963099 0.42055317878723147
leaf_weight=27 24 25 31 43 30
leaf_count=27 24 25 31 43 30
internal_value=0 -0.472277 0.0969214 -1.17158 0.314693
internal_weight=0 156 86 70 61
internal_count=180 156 86 70 61
is_linear=0
shrinkage=0.05


Tree=33
num_leaves=6
num_cat=0
split_feature=7 3 3 3 3
split_gain=68185 138545 26667.6 24947.7 6714.34
threshold=4.5000000000000009 196.00000000000003 25.500000000000004 66.500000000000014 105.00000000000001
decision_type=2 10 8 8 8
left_child=1 2 -1 -4 -5
right_child=-2 -3 3 4 -6
leaf_value=-1.4893783330917358 -2.1760208190977575 3.8330629588365555 1.7485745972394946 -0.8893430645076128 0.11203368331523651
leaf_weight=32 30 25 20 26 47
leaf_count=32 30 25 20 26 47
internal_value=0 0.435204 -0.244368 0.184023 -0.244621
internal_weight=0 150 125 93 73
internal_count=180 150 125 93 73
is_linear=0
shrinkage=0.05


Tree=34
num_leaves=7
num_cat=0
split_feature=2 4 8 2 2 2
split_gain=104876 36579 22053.6 11731.9 1987.48 705.235
threshold=372.00000000000006 99.000000000000014 29.500000000000004 78.500000000000014 196.00000000000003 16.500000000000004
decision_type=10 10 2 8 8 10
left_child=1 2 3 5 -5 -1
right_child=-2 -3 -4 4 -6 -7
leaf_value=-0.97745695290742107 2.5472555561499166 1.3601486864544097 -2.4166982984542851 -0.4415633546809356 0.16449686481106668 -1.3499640254924694
leaf_weight=27 33 21 20 24 31 24
leaf_count=27 33 21 20 24 31 24
internal_value=0 -0.571833 -0.89383 -0.606496 -0.0999658 -1.15275
internal_weight=0 147 126 106 55 51
internal_count=180 147 126 106 55 51
is_linear=0
shrinkage=0.05


Tree=35
num_leaves=7
num_cat=0
split_feature=1 3 1 3 1 1
split_gain=373045 41232.1 35512.1 26173.7 2638.38 28.9003
threshold=368.00000000000006 372.50000000000006 84.500000000000014 91.500000000000014 66.500000000000014 15.500000000000002
decision_type=10 8 8 10 10 10
left_child=1 3 -3 4 5 -1
right_child=-2 2 -4 -5 -6 -7
leaf_value=-1.2497825468579928 4.3280452919312014 -4.0163473939895633 -1.1896511001586914 0.90243451155044818 -0.66797623766793146 -1.3282157991243446
leaf_weight=24 39 20 25 22 27 23
leaf_count=24 39 20 25 22 27 23
internal_value=0 -1.19712 -2.44596 -0.611724 -1.06188 -1.28816
internal_weight=0 141 45 96 74 47
internal_count=180 141 45 96 74 47
is_linear=0
shrinkage=0.05


Tree=36
num_leaves=6
num_cat=0
split_feature=2 8 8 2 2
split_gain=81484.4 26619.7 20732.7 20231.2 32818.1
threshold=372.00000000000006 29.500000000000004 3.5000000000000004 25.500000000000004 74.500000000000014
decision_type=10 2 2 8 8
left_child=1 2 -1 -4 -5
right_child=-2 -3 3 4 -6
leaf_value=-1.2527359333303241 2.2452912355914263 -2.1995535612106325 -1.1171100279559261 2.2416404377846493 -0.13587166654302718
leaf_weight=36 33 20 23 21 47
leaf_count=36 33 20 23 21 47
internal_value=0 -0.504045 -0.237036 0.16478 0.59836
internal_weight=0 147 127 91 68
internal_count=180 147 127 91 68
is_linear=0
shrinkage=0.05


Tree=37
num_leaves=7
num_cat=0
split_feature=2 7 2 9 7 2
split_gain=73539.7 38464.1 25348.9 9160.63 6378.98 2663.99
threshold=372.00000000000006 1.5000000000000002 40.500000000000007 10.500000000000002 4.5000000000000009 69.500000000000014
decision_type=10 2 8 2 2 10
left_child=1 2 -1 -3 5 -5
right_child=-2 3 -4 4 -6 -7
leaf_value=1.8956189643769037 2.133026696696426 -2.0895759177207949 -0.25906151510201969 -0.87500654373850151 -1.4828446929271406 -0.068692963123321543
leaf_weight=21 33 20 39 21 26 20
leaf_count=21 33 20 39 21 26 20
internal_value=0 -0.478843 0.495077 -1.15051 -0.870193 -0.481683
internal_weight=0 147 60 87 67 41
internal_count=180 147 60 87 67 41
is_linear=0
shrinkage=0.05


Tree=38
num_leaves=7
num_cat=0
split_feature=8 3 3 3 3 8
split_gain=40784.6 103015 18355.6 20157.4 11856.4 1866.77
threshold=3.5000000000000004 196.00000000000003 25.500000000000004 40.500000000000007 95.500000000000014 28.500000000000004
decision_type=2 10 8 10 10 2
left_child=4 2 -2 5 -1 -4
right_child=1 -3 3 -5 -6 -7
leaf_value=-0.50983588374827216 -1.2818864663993872 3.7465122911334037 1.0250336170196535 -0.87093996631688086 -2.1334318366917695 0.46245660463968918
leaf_weight=23 27 20 29 29 22 30
leaf_count=23 27 20 29 29 22 30
internal_value=0 0.434531 -0.141465 0.208437 -1.30359 0.738978
internal_weight=0 135 115 88 45 59
internal_count=180 135 115 88 45 59
is_linear=0
shrinkage=0.05


Tree=39
num_leaves=7
num_cat=0
split_feature=8 3 5 5 8 8
split_gain=36808.1 92971.3 23865.2 21708.6 11035.4 2001.41
threshold=3.5000000000000004 196.00000000000003 53.000000000000007 105.00000000000001 28.500000000000004 6.5000000000000009
decision_type=2 10 10 8 2 2
left_child=2 3 -1 5 -5 -2
right_child=1 -3 -4 4 -6 -7
leaf_value=-0.20852216547727587 -1.1970455204618389 3.5591866183280945 -2.5257792943716049 1.2594546244694638 -0.063723694086074839 -0.54688232682645321
leaf_weight=25 29 20 20 26 40 20
leaf_count=25 29 20 20 26 40 20
internal_value=0 0.412805 -1.23841 -0.134392 0.457528 -0.931673
internal_weight=0 135 45 115 66 49
internal_count=180 135 45 115 66 49
is_linear=0
shrinkage=0.05


Tree=40
num_leaves=6
num_cat=0
split_feature=6 8 8 8 4
split_gain=62483.4 15644.3 3958.62 1375.79 721.793
threshold=283.00000000000006 6.5000000000000009 28.500000000000004 3.5000000000000004 18.500000000000004
decision_type=10 2 2 2 10
left_child=1 3 4 -1 -3
right_child=-2 2 -4 -5 -6
leaf_value=-0.72841590771218767 2.3750492056210835 -0.48401753664016722 0.41014586766560879 -1.1763395116726558 -0.064313045215039027
leaf_weight=40 24 20 45 30 21
leaf_count=40 24 20 45 30 21
internal_value=0 -0.365392 0.0863446 -0.920383 -0.269047
internal_weight=0 156 86 70 41
internal_count=180 156 86 70 41
is_linear=0
shrinkage=0.05


Tree=41
num_leaves=7
num_cat=0
split_feature=3 4 3 3 5 5
split_gain=20138.9 21196.7 30407.4 15629.3 5145.02 1103.13
threshold=25.500000000000004 383.50000000000006 103.50000000000001 66.500000000000014 72.000000000000014 12.500000000000002
decision_type=8 10 10 8 10 10
left_child=5 2 3 -2 -5 -1
right_child=1 -3 -4 4 -6 -7
leaf_value=-1.2274189984798431 1.418755499124527 -1.2134190756082537 2.2719074998583113 0.092063227426587499 -0.84002405956387527 -0.71434217393398292
leaf_weight=20 20 20 21 57 20 22
leaf_count=20 20 20 21 57 20 22
internal_value=0 0.291767 0.546884 0.173425 -0.150037 -0.958664
internal_weight=0 138 118 97 77 42
internal_count=180 138 118 97 77 42
is_linear=0
shrinkage=0.05


Tree=42
num_leaves=6
num_cat=0
split_feature=4 4 5 5 4
split_gain=12549.1 16999.9 21460.6 2117.5 393.374
threshold=22.000000000000004 383.50000000000006 95.500000000000014 40.500000000000007 22.000000000000004
decision_type=8 10 10 10 10
left_child=-1 2 3 4 -2
right_child=1 -3 -4 -5 -6
leaf_value=-0.86512027601985375 0.18610389471054078 -1.1527480506896974 1.8755403337024508 -0.27706563866138456 0.44215527340769772
leaf_weight=34 60 20 21 25 20
leaf_count=34 60 20 21 25 20
internal_value=0 0.201466 0.416421 0.124597 0.250117
internal_weight=0 146 126 105 80
internal_count=180 146 126 105 80
is_linear=0
shrinkage=0.05


Tree=43
num_leaves=7
num_cat=0
split_feature=1 3 1 3 8 1
split_gain=267297 42058.6 29706.9 17647.6 2153.28 1545.35
threshold=368.00000000000006 372.50000000000006 84.500000000000014 91.500000000000014 3.5000000000000004 66.500000000000014
decision_type=10 8 8 10 2 10
left_child=1 3 -3 4 -1 -6
right_child=-2 2 -4 -5 5 -7
leaf_value=-0.37707605334845457 3.663602491372671 -3.7109424972534182 -1.1255873699188232 0.82121210623193874 -1.1826593846082687 -0.62239274218678475
leaf_weight=22 39 20 25 22 32 20
leaf_count=22 39 20 25 22 32 20
internal_value=0 -1.01334 -2.27463 -0.422104 -0.791738 -0.967172
internal_weight=0 141 45 96 74 52
internal_count=180 141 45 96 74 52
is_linear=0
shrinkage=0.05


Tree=44
num_leaves=7
num_cat=0
split_feature=6 2 2 4 2 2
split_gain=48896.1 40268.9 9748.96 5819.94 1619.53 1426.44
threshold=283.00000000000006 372.00000000000006 78.500000000000014 91.500000000000014 78.500000000000014 16.500000000000004
decision_type=10 10 8 8 10 10
left_child=1 2 3 5 -4 -1
right_child=-2 -3 4 -5 -6 -7
leaf_value=-0.55467203546453403 2.101007801294327 1.515668007850647 0.034924818674723308 -1.8101080521941186 -0.46910261413192056 -1.1117919943481684
leaf_weight=27 24 25 30 20 34 20
leaf_count=27 24 25 30 20 34 20
internal_value=0 -0.323232 -0.674167 -1.09573 -0.23284 -0.791744
internal_weight=0 156 131 67 64 47
internal_count=180 156 131 67 64 47
is_linear=0
shrinkage=0.05


Tree=45
num_leaves=6
num_cat=0
split_feature=1 8 7 1 8
split_gain=230707 30515.2 20800.1 9549.82 1080
threshold=368.00000000000006 28.500000000000004 4.5000000000000009 25.500000000000004 7.5000000000000009
decision_type=10 2 2 10 2
left_child=1 2 3 4 -1
right_child=-2 -3 -4 -5 -6
leaf_value=-0.86647126177946721 3.4036247858634363 -2.3563076225916544 -1.68369176954031 0.44955325197126417 -0.3689770793914795
leaf_weight=24 39 30 30 37 20
leaf_count=24 39 30 30 37 20
internal_value=0 -0.941428 -0.559028 -0.142486 -0.640338
internal_weight=0 141 111 81 44
internal_count=180 141 111 81 44
is_linear=0
shrinkage=0.05


Tree=46
num_leaves=6
num_cat=0
split_feature=1 2 2 1 2
split_gain=208213 31047.3 11632.7 5622.57 232.349
threshold=368.00000000000006 196.00000000000003 27.500000000000004 83.500000000000014 15.500000000000002
decision_type=10 8 10 10 10
left_child=1 2 4 -4 -1
right_child=-2 -3 3 -5 -6
leaf_value=-0.92425082944057613 3.2334435310119241 -2.1614707416958279 0.67916717699595863 -0.35570774393422266 -1.1431507556275888
leaf_weight=27 39 36 21 35 22
leaf_count=27 39 36 21 35 22
internal_value=0 -0.894357 -0.459918 0.0323704 -1.02253
internal_weight=0 141 105 56 49
internal_count=180 141 105 56 49
is_linear=0
shrinkage=0.05


Tree=47
num_leaves=7
num_cat=0
split_feature=8 5 5 8 8 5
split_gain=26401.1 48005.2 18763.2 8365.27 1867.78 983.944
threshold=3.5000000000000004 95.500000000000014 53.000000000000007 6.5000000000000009 28.500000000000004 40.500000000000007
decision_type=2 10 10 2 2 8
left_child=2 3 -1 -2 5 -5
right_child=1 -3 -4 4 -6 -7
leaf_value=-0.13563692939281466 -0.85270862466096886 2.6105085229873661 -2.1903216725587846 0.20333278235935032 0.40894364039103187 -0.26531463284045459
leaf_weight=25 25 20 20 21 45 24
leaf_count=25 25 20 20 21 45 24
internal_value=0 0.34961 -1.04883 -0.0435897 0.181166 -0.0466125
internal_weight=0 135 45 115 90 45
internal_count=180 135 45 115 90 45
is_linear=0
shrinkage=0.05


Tree=48
num_leaves=6
num_cat=0
split_feature=6 2 2 2 6
split_gain=34711.3 26734.6 6648.21 3113.9 3108.25
threshold=283.00000000000006 372.00000000000006 372.00000000000006 78.500000000000014 95.500000000000014
decision_type=10 8 10 10 8
left_child=1 3 -3 4 -1
right_child=-2 2 -4 -5 -6
leaf_value=-0.64647709803806774 1.7702155202627183 0.11283660888671876 1.2168470120429993 -0.36563443675198976 -1.3313407292527457
leaf_weight=37 24 30 25 34 30
leaf_count=37 24 30 25 34 30
internal_value=0 -0.272341 0.61466 -0.755361 -0.953132
internal_weight=0 156 55 101 67
internal_count=180 156 55 101 67
is_linear=0
shrinkage=0.05


Tree=49
num_leaves=7
num_cat=0
split_feature=1 3 1 3 1 1
split_gain=175108 35600.6 25857.2 12239.5 1028.67 23.2233
threshold=368.00000000000006 372.50000000000006 84.500000000000014 91.500000000000014 83.500000000000014 15.500000000000002
decision_type=10 8 8 10 10 10
left_child=1 3 -3 4 5 -1
right_child=-2 2 -4 -5 -6 -7
leaf_value=-0.66502190486838419 2.9652647330210762 -3.3206236600875858 -0.90859545898437499 0.75919998074797068 -0.28790245680581955 -0.73151330988982632
leaf_weight=24 39 20 25 22 21 29
leaf_count=24 39 20 25 22 21 29
internal_value=0 -0.82018 -1.98061 -0.276229 -0.584059 -0.701404
internal_weight=0 141 45 96 74 53
internal_count=180 141 45 96 74 53
is_linear=0
shrinkage=0.05


end of trees

feature_importances:
Lag_2=45
Lag_3=42
Lag_1=40
Lag_4=39
day=30
Lag_5=24
Lag_6=24
Day_of_Week=24
Month=2

parameters:
[boosting: gbdt]
[objective: regression]
[metric: l2]
[tree_learner: serial]
[device_type: cpu]
[data_sample_strategy: bagging]
[data: ]
[valid: ]
[num_iterations: 50]
[learning_rate: 0.05]
[num_leaves: 10]
[num_threads: 0]
[seed: 0]
[deterministic: 0]
[force_col_wise: 0]
[force_row_wise: 0]
[histogram_pool_size: -1]
[max_depth: 5]
[min_data_in_leaf: 20]
[min_sum_hessian_in_leaf: 0.001]
[bagging_fraction: 1]
[pos_bagging_fraction: 1]
[neg_bagging_fraction: 1]
[bagging_freq: 0]
[bagging_seed: 3]
[feature_fraction: 0.3]
[feature_fraction_bynode: 1]
[feature_fraction_seed: 2]
[extra_trees: 0]
[extra_seed: 6]
[early_stopping_round: 0]
[early_stopping_min_delta: 0]
[first_metric_only: 0]
[max_delta_step: 0]
[lambda_l1: 0]
[lambda_l2: 0]
[linear_lambda: 0]
[min_gain_to_split: 0]
[drop_rate: 0.1]
[max_drop: 50]
[skip_drop: 0.5]
[xgboost_dart_mode: 0]
[uniform_drop: 0]
[drop_seed: 4]
[top_rate: 0.2]
[other_rate: 0.1]
[min_data_per_group: 100]
[max_cat_threshold: 32]
[cat_l2: 10]
[cat_smooth: 10]
[max_cat_to_onehot: 4]
[top_k: 20]
[monotone_constraints: ]
[monotone_constraints_method: basic]
[monotone_penalty: 0]
[feature_contri: ]
[forcedsplits_filename: ]
[refit_decay_rate: 0.9]
[cegb_tradeoff: 1]
[cegb_penalty_split: 0]
[cegb_penalty_feature_lazy: ]
[cegb_penalty_feature_coupled: ]
[path_smooth: 0]
[interaction_constraints: ]
[verbosity: 1]
[saved_feature_importance_type: 0]
[use_quantized_grad: 0]
[num_grad_quant_bins: 4]
[quant_train_renew_leaf: 0]
[stochastic_rounding: 1]
[linear_tree: 0]
[max_bin: 255]
[max_bin_by_feature: ]
[min_data_in_bin: 3]
[bin_construct_sample_cnt: 200000]
[data_random_seed: 1]
[is_enable_sparse: 1]
[enable_bundle: 1]
[use_missing: 1]
[zero_as_missing: 0]
[feature_pre_filter: 1]
[pre_partition: 0]
[two_round: 0]
[header: 0]
[label_column: ]
[weight_column: ]
[group_column: ]
[ignore_column: ]
[categorical_feature: 0]
[forcedbins_filename: ]
[precise_float_parser: 0]
[parser_config_file: ]
[objective_seed: 5]
[num_class: 1]
[is_unbalance: 0]
[scale_pos_weight: 1]
[sigmoid: 1]
[boost_from_average: 1]
[reg_sqrt: 0]
[alpha: 0.9]
[fair_c: 1]
[poisson_max_delta_step: 0.7]
[tweedie_variance_power: 1.5]
[lambdarank_truncation_level: 30]
[lambdarank_norm: 1]
[label_gain: ]
[lambdarank_position_bias_regularization: 0]
[eval_at: ]
[multi_error_top_k: 1]
[auc_mu_weights: ]
[num_machines: 1]
[local_listen_port: 12400]
[time_out: 120]
[machine_list_filename: ]
[machines: ]
[gpu_platform_id: -1]
[gpu_device_id: -1]
[gpu_use_dp: 0]
[num_gpu: 1]

end of parameters

pandas_categorical:[["CI000", "CI001", "CI002", "CI003", "CI004", "CO000", "CO001", "CO002", "CO003", "CO004", "UN000", "UN001", "UN002", "UN003", "UN004"]]
